digraph Tree {
node [shape=box] ;
0 [label="cp_type_4.0 <= 0.5\ngini = 0.4851\nsamples = 493\nvalue = [204, 289]"] ;
1 [label="age <= 54.5\ngini = 0.4173\nsamples = 209\nvalue = [147, 62]"] ;
0 -> 1 [labeldistance=2.5, labelangle=45, headlabel="True"] ;
2 [label="slope_2.0 <= 0.5\ngini = 0.2528\nsamples = 128\nvalue = [109, 19]"] ;
1 -> 2 ;
3 [label="gini = 0.1744\nsamples = 114\nvalue = [103, 11]"] ;
2 -> 3 ;
4 [label="gini = 0.4898\nsamples = 14\nvalue = [6, 8]"] ;
2 -> 4 ;
5 [label="rest_bp <= 141.0\ngini = 0.4981\nsamples = 81\nvalue = [38, 43]"] ;
1 -> 5 ;
6 [label="gini = 0.495\nsamples = 60\nvalue = [33, 27]"] ;
5 -> 6 ;
7 [label="gini = 0.3628\nsamples = 21\nvalue = [5, 16]"] ;
5 -> 7 ;
8 [label="slope_0.0 <= 0.5\ngini = 0.3208\nsamples = 284\nvalue = [57, 227]"] ;
0 -> 8 [labeldistance=2.5, labelangle=-45, headlabel="False"] ;
9 [label="sex_1.0 <= 0.5\ngini = 0.191\nsamples = 187\nvalue = [20, 167]"] ;
8 -> 9 ;
10 [label="gini = 0.4654\nsamples = 19\nvalue = [7, 12]"] ;
9 -> 10 ;
11 [label="gini = 0.1428\nsamples = 168\nvalue = [13, 155]"] ;
9 -> 11 ;
12 [label="rest_hr <= 75.8369\ngini = 0.4719\nsamples = 97\nvalue = [37, 60]"] ;
8 -> 12 ;
13 [label="gini = 0.3457\nsamples = 63\nvalue = [14, 49]"] ;
12 -> 13 ;
14 [label="gini = 0.4377\nsamples = 34\nvalue = [23, 11]"] ;
12 -> 14 ;
}