digraph Tree {
node [shape=box] ;
0 [label="cp_type <= 3.5\ngini = 0.7339\nsamples = 462\nvalue = [185, 108, 72, 71, 26]"] ;
1 [label="slope <= -4.5\ngini = 0.4982\nsamples = 194\nvalue = [133, 24, 13, 21, 3]"] ;
0 -> 1 [labeldistance=2.5, labelangle=45, headlabel="True"] ;
2 [label="age <= 57.5\ngini = 0.3342\nsamples = 136\nvalue = [110, 10, 7, 8, 1]"] ;
1 -> 2 ;
3 [label="exang <= 0.5\ngini = 0.1783\nsamples = 105\nvalue = [95, 4, 1, 4, 1]"] ;
2 -> 3 ;
4 [label="chol <= 332.5\ngini = 0.1155\nsamples = 99\nvalue = [93, 2, 0, 4, 0]"] ;
3 -> 4 ;
5 [label="rest_ecg <= -4.5\ngini = 0.0807\nsamples = 96\nvalue = [92, 2, 0, 2, 0]"] ;
4 -> 5 ;
6 [label="gini = 0.0\nsamples = 1\nvalue = [0, 0, 0, 1, 0]"] ;
5 -> 6 ;
7 [label="hist_cad <= 0.5\ngini = 0.0616\nsamples = 95\nvalue = [92, 2, 0, 1, 0]"] ;
5 -> 7 ;
8 [label="age <= 35.5\ngini = 0.022\nsamples = 90\nvalue = [89, 1, 0, 0, 0]"] ;
7 -> 8 ;
9 [label="max_hr <= 145.0\ngini = 0.1327\nsamples = 14\nvalue = [13, 1, 0, 0, 0]"] ;
8 -> 9 ;
10 [label="exang <= -4.5\ngini = 0.5\nsamples = 2\nvalue = [1, 1, 0, 0, 0]"] ;
9 -> 10 ;
11 [label="gini = 0.0\nsamples = 1\nvalue = [1, 0, 0, 0, 0]"] ;
10 -> 11 ;
12 [label="gini = 0.0\nsamples = 1\nvalue = [0, 1, 0, 0, 0]"] ;
10 -> 12 ;
13 [label="gini = 0.0\nsamples = 12\nvalue = [12, 0, 0, 0, 0]"] ;
9 -> 13 ;
14 [label="gini = 0.0\nsamples = 76\nvalue = [76, 0, 0, 0, 0]"] ;
8 -> 14 ;
15 [label="max_hr <= 161.0\ngini = 0.56\nsamples = 5\nvalue = [3, 1, 0, 1, 0]"] ;
7 -> 15 ;
16 [label="chol <= 154.0\ngini = 0.375\nsamples = 4\nvalue = [3, 0, 0, 1, 0]"] ;
15 -> 16 ;
17 [label="age <= 52.0\ngini = 0.5\nsamples = 2\nvalue = [1, 0, 0, 1, 0]"] ;
16 -> 17 ;
18 [label="gini = 0.0\nsamples = 1\nvalue = [0, 0, 0, 1, 0]"] ;
17 -> 18 ;
19 [label="gini = 0.0\nsamples = 1\nvalue = [1, 0, 0, 0, 0]"] ;
17 -> 19 ;
20 [label="gini = 0.0\nsamples = 2\nvalue = [2, 0, 0, 0, 0]"] ;
16 -> 20 ;
21 [label="gini = 0.0\nsamples = 1\nvalue = [0, 1, 0, 0, 0]"] ;
15 -> 21 ;
22 [label="cp_type <= 2.5\ngini = 0.4444\nsamples = 3\nvalue = [1, 0, 0, 2, 0]"] ;
4 -> 22 ;
23 [label="gini = 0.0\nsamples = 1\nvalue = [1, 0, 0, 0, 0]"] ;
22 -> 23 ;
24 [label="gini = 0.0\nsamples = 2\nvalue = [0, 0, 0, 2, 0]"] ;
22 -> 24 ;
25 [label="cp_type <= 2.5\ngini = 0.7222\nsamples = 6\nvalue = [2, 2, 1, 0, 1]"] ;
3 -> 25 ;
26 [label="gini = 0.0\nsamples = 2\nvalue = [2, 0, 0, 0, 0]"] ;
25 -> 26 ;
27 [label="oldpeak <= 0.75\ngini = 0.625\nsamples = 4\nvalue = [0, 2, 1, 0, 1]"] ;
25 -> 27 ;
28 [label="gini = 0.0\nsamples = 2\nvalue = [0, 2, 0, 0, 0]"] ;
27 -> 28 ;
29 [label="rest_hr <= 78.5\ngini = 0.5\nsamples = 2\nvalue = [0, 0, 1, 0, 1]"] ;
27 -> 29 ;
30 [label="gini = 0.0\nsamples = 1\nvalue = [0, 0, 0, 0, 1]"] ;
29 -> 30 ;
31 [label="gini = 0.0\nsamples = 1\nvalue = [0, 0, 1, 0, 0]"] ;
29 -> 31 ;
32 [label="age <= 58.5\ngini = 0.6743\nsamples = 31\nvalue = [15, 6, 6, 4, 0]"] ;
2 -> 32 ;
33 [label="max_hr <= 129.0\ngini = 0.5\nsamples = 6\nvalue = [1, 1, 4, 0, 0]"] ;
32 -> 33 ;
34 [label="gini = 0.0\nsamples = 4\nvalue = [0, 0, 4, 0, 0]"] ;
33 -> 34 ;
35 [label="max_hr <= 150.0\ngini = 0.5\nsamples = 2\nvalue = [1, 1, 0, 0, 0]"] ;
33 -> 35 ;
36 [label="gini = 0.0\nsamples = 1\nvalue = [0, 1, 0, 0, 0]"] ;
35 -> 36 ;
37 [label="gini = 0.0\nsamples = 1\nvalue = [1, 0, 0, 0, 0]"] ;
35 -> 37 ;
38 [label="fbs <= -4.5\ngini = 0.6144\nsamples = 25\nvalue = [14, 5, 2, 4, 0]"] ;
32 -> 38 ;
39 [label="rest_ecg <= 0.5\ngini = 0.5\nsamples = 2\nvalue = [0, 0, 1, 1, 0]"] ;
38 -> 39 ;
40 [label="gini = 0.0\nsamples = 1\nvalue = [0, 0, 1, 0, 0]"] ;
39 -> 40 ;
41 [label="gini = 0.0\nsamples = 1\nvalue = [0, 0, 0, 1, 0]"] ;
39 -> 41 ;
42 [label="age <= 70.0\ngini = 0.5633\nsamples = 23\nvalue = [14, 5, 1, 3, 0]"] ;
38 -> 42 ;
43 [label="rest_ecg <= 0.5\ngini = 0.482\nsamples = 19\nvalue = [13, 4, 1, 1, 0]"] ;
42 -> 43 ;
44 [label="chol <= 283.5\ngini = 0.18\nsamples = 10\nvalue = [9, 1, 0, 0, 0]"] ;
43 -> 44 ;
45 [label="gini = 0.0\nsamples = 7\nvalue = [7, 0, 0, 0, 0]"] ;
44 -> 45 ;
46 [label="max_hr <= 55.5\ngini = 0.4444\nsamples = 3\nvalue = [2, 1, 0, 0, 0]"] ;
44 -> 46 ;
47 [label="gini = 0.0\nsamples = 1\nvalue = [0, 1, 0, 0, 0]"] ;
46 -> 47 ;
48 [label="gini = 0.0\nsamples = 2\nvalue = [2, 0, 0, 0, 0]"] ;
46 -> 48 ;
49 [label="chol <= 69.5\ngini = 0.6667\nsamples = 9\nvalue = [4, 3, 1, 1, 0]"] ;
43 -> 49 ;
50 [label="exang <= -4.0\ngini = 0.5\nsamples = 2\nvalue = [0, 0, 1, 1, 0]"] ;
49 -> 50 ;
51 [label="gini = 0.0\nsamples = 1\nvalue = [0, 0, 1, 0, 0]"] ;
50 -> 51 ;
52 [label="gini = 0.0\nsamples = 1\nvalue = [0, 0, 0, 1, 0]"] ;
50 -> 52 ;
53 [label="yrs_smoke <= 25.0\ngini = 0.4898\nsamples = 7\nvalue = [4, 3, 0, 0, 0]"] ;
49 -> 53 ;
54 [label="hist_cad <= 0.5\ngini = 0.48\nsamples = 5\nvalue = [2, 3, 0, 0, 0]"] ;
53 -> 54 ;
55 [label="fbs <= 0.5\ngini = 0.4444\nsamples = 3\nvalue = [2, 1, 0, 0, 0]"] ;
54 -> 55 ;
56 [label="gini = 0.0\nsamples = 2\nvalue = [2, 0, 0, 0, 0]"] ;
55 -> 56 ;
57 [label="gini = 0.0\nsamples = 1\nvalue = [0, 1, 0, 0, 0]"] ;
55 -> 57 ;
58 [label="gini = 0.0\nsamples = 2\nvalue = [0, 2, 0, 0, 0]"] ;
54 -> 58 ;
59 [label="gini = 0.0\nsamples = 2\nvalue = [2, 0, 0, 0, 0]"] ;
53 -> 59 ;
60 [label="hist_dm <= -4.0\ngini = 0.625\nsamples = 4\nvalue = [1, 1, 0, 2, 0]"] ;
42 -> 60 ;
61 [label="chol <= 108.0\ngini = 0.4444\nsamples = 3\nvalue = [1, 0, 0, 2, 0]"] ;
60 -> 61 ;
62 [label="gini = 0.0\nsamples = 1\nvalue = [1, 0, 0, 0, 0]"] ;
61 -> 62 ;
63 [label="gini = 0.0\nsamples = 2\nvalue = [0, 0, 0, 2, 0]"] ;
61 -> 63 ;
64 [label="gini = 0.0\nsamples = 1\nvalue = [0, 1, 0, 0, 0]"] ;
60 -> 64 ;
65 [label="max_hr <= 106.0\ngini = 0.7224\nsamples = 58\nvalue = [23, 14, 6, 13, 2]"] ;
1 -> 65 ;
66 [label="rest_bp <= 115.0\ngini = 0.54\nsamples = 10\nvalue = [3, 0, 1, 6, 0]"] ;
65 -> 66 ;
67 [label="gini = 0.0\nsamples = 2\nvalue = [2, 0, 0, 0, 0]"] ;
66 -> 67 ;
68 [label="thal <= 5.0\ngini = 0.4063\nsamples = 8\nvalue = [1, 0, 1, 6, 0]"] ;
66 -> 68 ;
69 [label="rest_hr <= 71.0\ngini = 0.2449\nsamples = 7\nvalue = [0, 0, 1, 6, 0]"] ;
68 -> 69 ;
70 [label="gini = 0.0\nsamples = 6\nvalue = [0, 0, 0, 6, 0]"] ;
69 -> 70 ;
71 [label="gini = 0.0\nsamples = 1\nvalue = [0, 0, 1, 0, 0]"] ;
69 -> 71 ;
72 [label="gini = 0.0\nsamples = 1\nvalue = [1, 0, 0, 0, 0]"] ;
68 -> 72 ;
73 [label="chol <= 268.5\ngini = 0.7075\nsamples = 48\nvalue = [20, 14, 5, 7, 2]"] ;
65 -> 73 ;
74 [label="oldpeak <= 1.4\ngini = 0.6842\nsamples = 38\nvalue = [15, 14, 5, 3, 1]"] ;
73 -> 74 ;
75 [label="oldpeak <= -0.05\ngini = 0.5123\nsamples = 18\nvalue = [6, 11, 1, 0, 0]"] ;
74 -> 75 ;
76 [label="gini = 0.0\nsamples = 3\nvalue = [3, 0, 0, 0, 0]"] ;
75 -> 76 ;
77 [label="rest_ecg <= 1.5\ngini = 0.4178\nsamples = 15\nvalue = [3, 11, 1, 0, 0]"] ;
75 -> 77 ;
78 [label="ex_bp1 <= 155.0\ngini = 0.3367\nsamples = 14\nvalue = [3, 11, 0, 0, 0]"] ;
77 -> 78 ;
79 [label="max_hr <= 115.0\ngini = 0.4444\nsamples = 3\nvalue = [2, 1, 0, 0, 0]"] ;
78 -> 79 ;
80 [label="gini = 0.0\nsamples = 1\nvalue = [0, 1, 0, 0, 0]"] ;
79 -> 80 ;
81 [label="gini = 0.0\nsamples = 2\nvalue = [2, 0, 0, 0, 0]"] ;
79 -> 81 ;
82 [label="rest_hr <= 63.0\ngini = 0.1653\nsamples = 11\nvalue = [1, 10, 0, 0, 0]"] ;
78 -> 82 ;
83 [label="gini = 0.0\nsamples = 1\nvalue = [1, 0, 0, 0, 0]"] ;
82 -> 83 ;
84 [label="gini = 0.0\nsamples = 10\nvalue = [0, 10, 0, 0, 0]"] ;
82 -> 84 ;
85 [label="gini = 0.0\nsamples = 1\nvalue = [0, 0, 1, 0, 0]"] ;
77 -> 85 ;
86 [label="ex_bp2 <= 85.0\ngini = 0.71\nsamples = 20\nvalue = [9, 3, 4, 3, 1]"] ;
74 -> 86 ;
87 [label="ex_bp1 <= 165.0\ngini = 0.6111\nsamples = 6\nvalue = [0, 3, 2, 0, 1]"] ;
86 -> 87 ;
88 [label="age <= 67.5\ngini = 0.4444\nsamples = 3\nvalue = [0, 0, 2, 0, 1]"] ;
87 -> 88 ;
89 [label="gini = 0.0\nsamples = 2\nvalue = [0, 0, 2, 0, 0]"] ;
88 -> 89 ;
90 [label="gini = 0.0\nsamples = 1\nvalue = [0, 0, 0, 0, 1]"] ;
88 -> 90 ;
91 [label="gini = 0.0\nsamples = 3\nvalue = [0, 3, 0, 0, 0]"] ;
87 -> 91 ;
92 [label="rest_hr <= 87.5\ngini = 0.5204\nsamples = 14\nvalue = [9, 0, 2, 3, 0]"] ;
86 -> 92 ;
93 [label="oldpeak <= 2.5\ngini = 0.4028\nsamples = 12\nvalue = [9, 0, 2, 1, 0]"] ;
92 -> 93 ;
94 [label="rest_bp <= 60.0\ngini = 0.1975\nsamples = 9\nvalue = [8, 0, 0, 1, 0]"] ;
93 -> 94 ;
95 [label="gini = 0.0\nsamples = 1\nvalue = [0, 0, 0, 1, 0]"] ;
94 -> 95 ;
96 [label="gini = 0.0\nsamples = 8\nvalue = [8, 0, 0, 0, 0]"] ;
94 -> 96 ;
97 [label="hist_dm <= -4.0\ngini = 0.4444\nsamples = 3\nvalue = [1, 0, 2, 0, 0]"] ;
93 -> 97 ;
98 [label="gini = 0.0\nsamples = 2\nvalue = [0, 0, 2, 0, 0]"] ;
97 -> 98 ;
99 [label="gini = 0.0\nsamples = 1\nvalue = [1, 0, 0, 0, 0]"] ;
97 -> 99 ;
100 [label="gini = 0.0\nsamples = 2\nvalue = [0, 0, 0, 2, 0]"] ;
92 -> 100 ;
101 [label="fbs <= 0.5\ngini = 0.58\nsamples = 10\nvalue = [5, 0, 0, 4, 1]"] ;
73 -> 101 ;
102 [label="chol <= 366.5\ngini = 0.449\nsamples = 7\nvalue = [5, 0, 0, 1, 1]"] ;
101 -> 102 ;
103 [label="ex_bp2 <= 89.5\ngini = 0.2778\nsamples = 6\nvalue = [5, 0, 0, 1, 0]"] ;
102 -> 103 ;
104 [label="rest_hr <= 103.0\ngini = 0.5\nsamples = 2\nvalue = [1, 0, 0, 1, 0]"] ;
103 -> 104 ;
105 [label="gini = 0.0\nsamples = 1\nvalue = [0, 0, 0, 1, 0]"] ;
104 -> 105 ;
106 [label="gini = 0.0\nsamples = 1\nvalue = [1, 0, 0, 0, 0]"] ;
104 -> 106 ;
107 [label="gini = 0.0\nsamples = 4\nvalue = [4, 0, 0, 0, 0]"] ;
103 -> 107 ;
108 [label="gini = 0.0\nsamples = 1\nvalue = [0, 0, 0, 0, 1]"] ;
102 -> 108 ;
109 [label="gini = 0.0\nsamples = 3\nvalue = [0, 0, 0, 3, 0]"] ;
101 -> 109 ;
110 [label="oldpeak <= 1.9\ngini = 0.7735\nsamples = 268\nvalue = [52, 84, 59, 50, 23]"] ;
0 -> 110 [labeldistance=2.5, labelangle=-45, headlabel="False"] ;
111 [label="slope <= -4.0\ngini = 0.7403\nsamples = 199\nvalue = [46, 74, 41, 31, 7]"] ;
110 -> 111 ;
112 [label="rest_hr <= 75.5\ngini = 0.7267\nsamples = 89\nvalue = [34, 24, 18, 10, 3]"] ;
111 -> 112 ;
113 [label="ex_bp2 <= 82.0\ngini = 0.7458\nsamples = 55\nvalue = [11, 18, 16, 8, 2]"] ;
112 -> 113 ;
114 [label="oldpeak <= -4.5\ngini = 0.7365\nsamples = 33\nvalue = [4, 7, 13, 7, 2]"] ;
113 -> 114 ;
115 [label="chol <= 285.5\ngini = 0.7355\nsamples = 22\nvalue = [2, 7, 5, 7, 1]"] ;
114 -> 115 ;
116 [label="hist_cad <= -4.5\ngini = 0.716\nsamples = 18\nvalue = [1, 7, 5, 4, 1]"] ;
115 -> 116 ;
117 [label="thal <= -1.0\ngini = 0.375\nsamples = 4\nvalue = [0, 0, 1, 3, 0]"] ;
116 -> 117 ;
118 [label="gini = 0.0\nsamples = 1\nvalue = [0, 0, 1, 0, 0]"] ;
117 -> 118 ;
119 [label="gini = 0.0\nsamples = 3\nvalue = [0, 0, 0, 3, 0]"] ;
117 -> 119 ;
120 [label="rest_ecg <= 0.5\ngini = 0.6531\nsamples = 14\nvalue = [1, 7, 4, 1, 1]"] ;
116 -> 120 ;
121 [label="gini = 0.0\nsamples = 5\nvalue = [0, 5, 0, 0, 0]"] ;
120 -> 121 ;
122 [label="rest_ecg <= 1.5\ngini = 0.716\nsamples = 9\nvalue = [1, 2, 4, 1, 1]"] ;
120 -> 122 ;
123 [label="age <= 58.5\ngini = 0.6122\nsamples = 7\nvalue = [1, 0, 4, 1, 1]"] ;
122 -> 123 ;
124 [label="yrs_smoke <= 22.5\ngini = 0.75\nsamples = 4\nvalue = [1, 0, 1, 1, 1]"] ;
123 -> 124 ;
125 [label="gini = 0.0\nsamples = 1\nvalue = [1, 0, 0, 0, 0]"] ;
124 -> 125 ;
126 [label="fbs <= 0.5\ngini = 0.6667\nsamples = 3\nvalue = [0, 0, 1, 1, 1]"] ;
124 -> 126 ;
127 [label="gini = 0.0\nsamples = 1\nvalue = [0, 0, 0, 1, 0]"] ;
126 -> 127 ;
128 [label="age <= 54.0\ngini = 0.5\nsamples = 2\nvalue = [0, 0, 1, 0, 1]"] ;
126 -> 128 ;
129 [label="gini = 0.0\nsamples = 1\nvalue = [0, 0, 1, 0, 0]"] ;
128 -> 129 ;
130 [label="gini = 0.0\nsamples = 1\nvalue = [0, 0, 0, 0, 1]"] ;
128 -> 130 ;
131 [label="gini = 0.0\nsamples = 3\nvalue = [0, 0, 3, 0, 0]"] ;
123 -> 131 ;
132 [label="gini = 0.0\nsamples = 2\nvalue = [0, 2, 0, 0, 0]"] ;
122 -> 132 ;
133 [label="hist_dm <= -4.0\ngini = 0.375\nsamples = 4\nvalue = [1, 0, 0, 3, 0]"] ;
115 -> 133 ;
134 [label="gini = 0.0\nsamples = 3\nvalue = [0, 0, 0, 3, 0]"] ;
133 -> 134 ;
135 [label="gini = 0.0\nsamples = 1\nvalue = [1, 0, 0, 0, 0]"] ;
133 -> 135 ;
136 [label="sex <= 0.5\ngini = 0.4298\nsamples = 11\nvalue = [2, 0, 8, 0, 1]"] ;
114 -> 136 ;
137 [label="gini = 0.0\nsamples = 1\nvalue = [1, 0, 0, 0, 0]"] ;
136 -> 137 ;
138 [label="rest_hr <= 59.5\ngini = 0.34\nsamples = 10\nvalue = [1, 0, 8, 0, 1]"] ;
136 -> 138 ;
139 [label="hist_cad <= -4.5\ngini = 0.5\nsamples = 2\nvalue = [0, 0, 1, 0, 1]"] ;
138 -> 139 ;
140 [label="gini = 0.0\nsamples = 1\nvalue = [0, 0, 0, 0, 1]"] ;
139 -> 140 ;
141 [label="gini = 0.0\nsamples = 1\nvalue = [0, 0, 1, 0, 0]"] ;
139 -> 141 ;
142 [label="ex_bp1 <= 160.0\ngini = 0.2188\nsamples = 8\nvalue = [1, 0, 7, 0, 0]"] ;
138 -> 142 ;
143 [label="ex_bp2 <= 75.0\ngini = 0.5\nsamples = 2\nvalue = [1, 0, 1, 0, 0]"] ;
142 -> 143 ;
144 [label="gini = 0.0\nsamples = 1\nvalue = [0, 0, 1, 0, 0]"] ;
143 -> 144 ;
145 [label="gini = 0.0\nsamples = 1\nvalue = [1, 0, 0, 0, 0]"] ;
143 -> 145 ;
146 [label="gini = 0.0\nsamples = 6\nvalue = [0, 0, 6, 0, 0]"] ;
142 -> 146 ;
147 [label="ex_bp2 <= 104.0\ngini = 0.6281\nsamples = 22\nvalue = [7, 11, 3, 1, 0]"] ;
113 -> 147 ;
148 [label="ex_bp2 <= 95.5\ngini = 0.5928\nsamples = 19\nvalue = [4, 11, 3, 1, 0]"] ;
147 -> 148 ;
149 [label="max_hr <= 88.0\ngini = 0.32\nsamples = 10\nvalue = [2, 8, 0, 0, 0]"] ;
148 -> 149 ;
150 [label="gini = 0.0\nsamples = 1\nvalue = [1, 0, 0, 0, 0]"] ;
149 -> 150 ;
151 [label="age <= 37.5\ngini = 0.1975\nsamples = 9\nvalue = [1, 8, 0, 0, 0]"] ;
149 -> 151 ;
152 [label="gini = 0.0\nsamples = 1\nvalue = [1, 0, 0, 0, 0]"] ;
151 -> 152 ;
153 [label="gini = 0.0\nsamples = 8\nvalue = [0, 8, 0, 0, 0]"] ;
151 -> 153 ;
154 [label="age <= 62.5\ngini = 0.716\nsamples = 9\nvalue = [2, 3, 3, 1, 0]"] ;
148 -> 154 ;
155 [label="ex_bp1 <= 175.0\ngini = 0.6563\nsamples = 8\nvalue = [2, 3, 3, 0, 0]"] ;
154 -> 155 ;
156 [label="yrs_smoke <= 15.0\ngini = 0.4444\nsamples = 3\nvalue = [1, 2, 0, 0, 0]"] ;
155 -> 156 ;
157 [label="gini = 0.0\nsamples = 1\nvalue = [1, 0, 0, 0, 0]"] ;
156 -> 157 ;
158 [label="gini = 0.0\nsamples = 2\nvalue = [0, 2, 0, 0, 0]"] ;
156 -> 158 ;
159 [label="age <= 42.5\ngini = 0.56\nsamples = 5\nvalue = [1, 1, 3, 0, 0]"] ;
155 -> 159 ;
160 [label="max_hr <= 126.0\ngini = 0.5\nsamples = 2\nvalue = [1, 1, 0, 0, 0]"] ;
159 -> 160 ;
161 [label="gini = 0.0\nsamples = 1\nvalue = [0, 1, 0, 0, 0]"] ;
160 -> 161 ;
162 [label="gini = 0.0\nsamples = 1\nvalue = [1, 0, 0, 0, 0]"] ;
160 -> 162 ;
163 [label="gini = 0.0\nsamples = 3\nvalue = [0, 0, 3, 0, 0]"] ;
159 -> 163 ;
164 [label="gini = 0.0\nsamples = 1\nvalue = [0, 0, 0, 1, 0]"] ;
154 -> 164 ;
165 [label="gini = 0.0\nsamples = 3\nvalue = [3, 0, 0, 0, 0]"] ;
147 -> 165 ;
166 [label="ex_bp2 <= 107.0\ngini = 0.5035\nsamples = 34\nvalue = [23, 6, 2, 2, 1]"] ;
112 -> 166 ;
167 [label="max_hr <= 149.0\ngini = 0.3495\nsamples = 28\nvalue = [22, 5, 1, 0, 0]"] ;
166 -> 167 ;
168 [label="age <= 61.5\ngini = 0.1049\nsamples = 18\nvalue = [17, 1, 0, 0, 0]"] ;
167 -> 168 ;
169 [label="gini = 0.0\nsamples = 17\nvalue = [17, 0, 0, 0, 0]"] ;
168 -> 169 ;
170 [label="gini = 0.0\nsamples = 1\nvalue = [0, 1, 0, 0, 0]"] ;
168 -> 170 ;
171 [label="age <= 37.5\ngini = 0.58\nsamples = 10\nvalue = [5, 4, 1, 0, 0]"] ;
167 -> 171 ;
172 [label="gini = 0.0\nsamples = 3\nvalue = [3, 0, 0, 0, 0]"] ;
171 -> 172 ;
173 [label="rest_hr <= 93.5\ngini = 0.5714\nsamples = 7\nvalue = [2, 4, 1, 0, 0]"] ;
171 -> 173 ;
174 [label="ex_bp1 <= 149.0\ngini = 0.32\nsamples = 5\nvalue = [0, 4, 1, 0, 0]"] ;
173 -> 174 ;
175 [label="gini = 0.0\nsamples = 1\nvalue = [0, 0, 1, 0, 0]"] ;
174 -> 175 ;
176 [label="gini = 0.0\nsamples = 4\nvalue = [0, 4, 0, 0, 0]"] ;
174 -> 176 ;
177 [label="gini = 0.0\nsamples = 2\nvalue = [2, 0, 0, 0, 0]"] ;
173 -> 177 ;
178 [label="max_hr <= 125.5\ngini = 0.7778\nsamples = 6\nvalue = [1, 1, 1, 2, 1]"] ;
166 -> 178 ;
179 [label="gini = 0.0\nsamples = 2\nvalue = [0, 0, 0, 2, 0]"] ;
178 -> 179 ;
180 [label="hist_cad <= -4.0\ngini = 0.75\nsamples = 4\nvalue = [1, 1, 1, 0, 1]"] ;
178 -> 180 ;
181 [label="ex_bp2 <= 112.5\ngini = 0.6667\nsamples = 3\nvalue = [1, 1, 0, 0, 1]"] ;
180 -> 181 ;
182 [label="gini = 0.0\nsamples = 1\nvalue = [1, 0, 0, 0, 0]"] ;
181 -> 182 ;
183 [label="age <= 45.0\ngini = 0.5\nsamples = 2\nvalue = [0, 1, 0, 0, 1]"] ;
181 -> 183 ;
184 [label="gini = 0.0\nsamples = 1\nvalue = [0, 0, 0, 0, 1]"] ;
183 -> 184 ;
185 [label="gini = 0.0\nsamples = 1\nvalue = [0, 1, 0, 0, 0]"] ;
183 -> 185 ;
186 [label="gini = 0.0\nsamples = 1\nvalue = [0, 0, 1, 0, 0]"] ;
180 -> 186 ;
187 [label="rest_bp <= 124.5\ngini = 0.7\nsamples = 110\nvalue = [12, 50, 23, 21, 4]"] ;
111 -> 187 ;
188 [label="fbs <= 0.5\ngini = 0.5289\nsamples = 44\nvalue = [3, 29, 5, 6, 1]"] ;
187 -> 188 ;
189 [label="age <= 57.5\ngini = 0.45\nsamples = 40\nvalue = [2, 29, 5, 3, 1]"] ;
188 -> 189 ;
190 [label="ex_bp2 <= 82.5\ngini = 0.5953\nsamples = 27\nvalue = [2, 16, 5, 3, 1]"] ;
189 -> 190 ;
191 [label="ex_bp1 <= 165.0\ngini = 0.7347\nsamples = 14\nvalue = [1, 5, 4, 3, 1]"] ;
190 -> 191 ;
192 [label="thal <= 4.5\ngini = 0.6446\nsamples = 11\nvalue = [0, 5, 4, 1, 1]"] ;
191 -> 192 ;
193 [label="age <= 56.5\ngini = 0.6173\nsamples = 9\nvalue = [0, 5, 2, 1, 1]"] ;
192 -> 193 ;
194 [label="rest_hr <= 88.5\ngini = 0.5313\nsamples = 8\nvalue = [0, 5, 2, 0, 1]"] ;
193 -> 194 ;
195 [label="rest_hr <= 74.0\ngini = 0.32\nsamples = 5\nvalue = [0, 4, 0, 0, 1]"] ;
194 -> 195 ;
196 [label="gini = 0.0\nsamples = 3\nvalue = [0, 3, 0, 0, 0]"] ;
195 -> 196 ;
197 [label="ex_bp1 <= 145.0\ngini = 0.5\nsamples = 2\nvalue = [0, 1, 0, 0, 1]"] ;
195 -> 197 ;
198 [label="gini = 0.0\nsamples = 1\nvalue = [0, 0, 0, 0, 1]"] ;
197 -> 198 ;
199 [label="gini = 0.0\nsamples = 1\nvalue = [0, 1, 0, 0, 0]"] ;
197 -> 199 ;
200 [label="ex_bp2 <= 35.5\ngini = 0.4444\nsamples = 3\nvalue = [0, 1, 2, 0, 0]"] ;
194 -> 200 ;
201 [label="gini = 0.0\nsamples = 1\nvalue = [0, 1, 0, 0, 0]"] ;
200 -> 201 ;
202 [label="gini = 0.0\nsamples = 2\nvalue = [0, 0, 2, 0, 0]"] ;
200 -> 202 ;
203 [label="gini = 0.0\nsamples = 1\nvalue = [0, 0, 0, 1, 0]"] ;
193 -> 203 ;
204 [label="gini = 0.0\nsamples = 2\nvalue = [0, 0, 2, 0, 0]"] ;
192 -> 204 ;
205 [label="rest_hr <= 84.0\ngini = 0.4444\nsamples = 3\nvalue = [1, 0, 0, 2, 0]"] ;
191 -> 205 ;
206 [label="gini = 0.0\nsamples = 2\nvalue = [0, 0, 0, 2, 0]"] ;
205 -> 206 ;
207 [label="gini = 0.0\nsamples = 1\nvalue = [1, 0, 0, 0, 0]"] ;
205 -> 207 ;
208 [label="chol <= 308.5\ngini = 0.2722\nsamples = 13\nvalue = [1, 11, 1, 0, 0]"] ;
190 -> 208 ;
209 [label="age <= 55.5\ngini = 0.1528\nsamples = 12\nvalue = [0, 11, 1, 0, 0]"] ;
208 -> 209 ;
210 [label="gini = 0.0\nsamples = 10\nvalue = [0, 10, 0, 0, 0]"] ;
209 -> 210 ;
211 [label="thal <= 4.0\ngini = 0.5\nsamples = 2\nvalue = [0, 1, 1, 0, 0]"] ;
209 -> 211 ;
212 [label="gini = 0.0\nsamples = 1\nvalue = [0, 0, 1, 0, 0]"] ;
211 -> 212 ;
213 [label="gini = 0.0\nsamples = 1\nvalue = [0, 1, 0, 0, 0]"] ;
211 -> 213 ;
214 [label="gini = 0.0\nsamples = 1\nvalue = [1, 0, 0, 0, 0]"] ;
208 -> 214 ;
215 [label="gini = 0.0\nsamples = 13\nvalue = [0, 13, 0, 0, 0]"] ;
189 -> 215 ;
216 [label="slope <= 1.5\ngini = 0.375\nsamples = 4\nvalue = [1, 0, 0, 3, 0]"] ;
188 -> 216 ;
217 [label="gini = 0.0\nsamples = 1\nvalue = [1, 0, 0, 0, 0]"] ;
216 -> 217 ;
218 [label="gini = 0.0\nsamples = 3\nvalue = [0, 0, 0, 3, 0]"] ;
216 -> 218 ;
219 [label="max_hr <= 124.5\ngini = 0.7521\nsamples = 66\nvalue = [9, 21, 18, 15, 3]"] ;
187 -> 219 ;
220 [label="max_hr <= 97.0\ngini = 0.7305\nsamples = 31\nvalue = [4, 9, 3, 12, 3]"] ;
219 -> 220 ;
221 [label="age <= 55.5\ngini = 0.6111\nsamples = 6\nvalue = [2, 1, 3, 0, 0]"] ;
220 -> 221 ;
222 [label="gini = 0.0\nsamples = 3\nvalue = [0, 0, 3, 0, 0]"] ;
221 -> 222 ;
223 [label="oldpeak <= 1.25\ngini = 0.4444\nsamples = 3\nvalue = [2, 1, 0, 0, 0]"] ;
221 -> 223 ;
224 [label="gini = 0.0\nsamples = 2\nvalue = [2, 0, 0, 0, 0]"] ;
223 -> 224 ;
225 [label="gini = 0.0\nsamples = 1\nvalue = [0, 1, 0, 0, 0]"] ;
223 -> 225 ;
226 [label="ex_bp1 <= 155.0\ngini = 0.6464\nsamples = 25\nvalue = [2, 8, 0, 12, 3]"] ;
220 -> 226 ;
227 [label="rest_hr <= 73.0\ngini = 0.5\nsamples = 6\nvalue = [0, 3, 0, 0, 3]"] ;
226 -> 227 ;
228 [label="gini = 0.0\nsamples = 3\nvalue = [0, 3, 0, 0, 0]"] ;
227 -> 228 ;
229 [label="gini = 0.0\nsamples = 3\nvalue = [0, 0, 0, 0, 3]"] ;
227 -> 229 ;
230 [label="rest_hr <= 91.0\ngini = 0.5208\nsamples = 19\nvalue = [2, 5, 0, 12, 0]"] ;
226 -> 230 ;
231 [label="age <= 51.0\ngini = 0.4152\nsamples = 17\nvalue = [0, 5, 0, 12, 0]"] ;
230 -> 231 ;
232 [label="gini = 0.0\nsamples = 2\nvalue = [0, 2, 0, 0, 0]"] ;
231 -> 232 ;
233 [label="slope <= 1.5\ngini = 0.32\nsamples = 15\nvalue = [0, 3, 0, 12, 0]"] ;
231 -> 233 ;
234 [label="rest_ecg <= 0.5\ngini = 0.5\nsamples = 6\nvalue = [0, 3, 0, 3, 0]"] ;
233 -> 234 ;
235 [label="exang <= 0.5\ngini = 0.375\nsamples = 4\nvalue = [0, 3, 0, 1, 0]"] ;
234 -> 235 ;
236 [label="gini = 0.0\nsamples = 1\nvalue = [0, 0, 0, 1, 0]"] ;
235 -> 236 ;
237 [label="gini = 0.0\nsamples = 3\nvalue = [0, 3, 0, 0, 0]"] ;
235 -> 237 ;
238 [label="gini = 0.0\nsamples = 2\nvalue = [0, 0, 0, 2, 0]"] ;
234 -> 238 ;
239 [label="gini = 0.0\nsamples = 9\nvalue = [0, 0, 0, 9, 0]"] ;
233 -> 239 ;
240 [label="gini = 0.0\nsamples = 2\nvalue = [2, 0, 0, 0, 0]"] ;
230 -> 240 ;
241 [label="ex_bp1 <= 195.0\ngini = 0.671\nsamples = 35\nvalue = [5, 12, 15, 3, 0]"] ;
219 -> 241 ;
242 [label="max_hr <= 125.5\ngini = 0.6979\nsamples = 24\nvalue = [4, 10, 7, 3, 0]"] ;
241 -> 242 ;
243 [label="gini = 0.0\nsamples = 2\nvalue = [0, 0, 2, 0, 0]"] ;
242 -> 243 ;
244 [label="chol <= 342.5\ngini = 0.6901\nsamples = 22\nvalue = [4, 10, 5, 3, 0]"] ;
242 -> 244 ;
245 [label="yrs_smoke <= 22.5\ngini = 0.655\nsamples = 20\nvalue = [2, 10, 5, 3, 0]"] ;
244 -> 245 ;
246 [label="age <= 55.0\ngini = 0.5882\nsamples = 17\nvalue = [1, 10, 3, 3, 0]"] ;
245 -> 246 ;
247 [label="yrs_smoke <= -4.5\ngini = 0.716\nsamples = 9\nvalue = [1, 3, 3, 2, 0]"] ;
246 -> 247 ;
248 [label="ex_bp1 <= 177.5\ngini = 0.6122\nsamples = 7\nvalue = [1, 3, 3, 0, 0]"] ;
247 -> 248 ;
249 [label="chol <= 90.0\ngini = 0.375\nsamples = 4\nvalue = [1, 0, 3, 0, 0]"] ;
248 -> 249 ;
250 [label="gini = 0.0\nsamples = 3\nvalue = [0, 0, 3, 0, 0]"] ;
249 -> 250 ;
251 [label="gini = 0.0\nsamples = 1\nvalue = [1, 0, 0, 0, 0]"] ;
249 -> 251 ;
252 [label="gini = 0.0\nsamples = 3\nvalue = [0, 3, 0, 0, 0]"] ;
248 -> 252 ;
253 [label="gini = 0.0\nsamples = 2\nvalue = [0, 0, 0, 2, 0]"] ;
247 -> 253 ;
254 [label="ex_bp1 <= 187.0\ngini = 0.2188\nsamples = 8\nvalue = [0, 7, 0, 1, 0]"] ;
246 -> 254 ;
255 [label="gini = 0.0\nsamples = 7\nvalue = [0, 7, 0, 0, 0]"] ;
254 -> 255 ;
256 [label="gini = 0.0\nsamples = 1\nvalue = [0, 0, 0, 1, 0]"] ;
254 -> 256 ;
257 [label="max_hr <= 129.0\ngini = 0.4444\nsamples = 3\nvalue = [1, 0, 2, 0, 0]"] ;
245 -> 257 ;
258 [label="gini = 0.0\nsamples = 1\nvalue = [1, 0, 0, 0, 0]"] ;
257 -> 258 ;
259 [label="gini = 0.0\nsamples = 2\nvalue = [0, 0, 2, 0, 0]"] ;
257 -> 259 ;
260 [label="gini = 0.0\nsamples = 2\nvalue = [2, 0, 0, 0, 0]"] ;
244 -> 260 ;
261 [label="oldpeak <= 0.7\ngini = 0.4298\nsamples = 11\nvalue = [1, 2, 8, 0, 0]"] ;
241 -> 261 ;
262 [label="exang <= 0.5\ngini = 0.4444\nsamples = 3\nvalue = [0, 2, 1, 0, 0]"] ;
261 -> 262 ;
263 [label="gini = 0.0\nsamples = 2\nvalue = [0, 2, 0, 0, 0]"] ;
262 -> 263 ;
264 [label="gini = 0.0\nsamples = 1\nvalue = [0, 0, 1, 0, 0]"] ;
262 -> 264 ;
265 [label="rest_hr <= 62.0\ngini = 0.2188\nsamples = 8\nvalue = [1, 0, 7, 0, 0]"] ;
261 -> 265 ;
266 [label="gini = 0.0\nsamples = 1\nvalue = [1, 0, 0, 0, 0]"] ;
265 -> 266 ;
267 [label="gini = 0.0\nsamples = 7\nvalue = [0, 0, 7, 0, 0]"] ;
265 -> 267 ;
268 [label="age <= 64.5\ngini = 0.7738\nsamples = 69\nvalue = [6, 10, 18, 19, 16]"] ;
110 -> 268 ;
269 [label="chol <= 58.5\ngini = 0.773\nsamples = 63\nvalue = [5, 10, 18, 14, 16]"] ;
268 -> 269 ;
270 [label="oldpeak <= 2.9\ngini = 0.6224\nsamples = 14\nvalue = [2, 1, 8, 2, 1]"] ;
269 -> 270 ;
271 [label="yrs_smoke <= -4.5\ngini = 0.5139\nsamples = 12\nvalue = [2, 1, 8, 0, 1]"] ;
270 -> 271 ;
272 [label="ex_bp1 <= 142.5\ngini = 0.34\nsamples = 10\nvalue = [1, 0, 8, 0, 1]"] ;
271 -> 272 ;
273 [label="slope <= 2.5\ngini = 0.5\nsamples = 2\nvalue = [1, 0, 0, 0, 1]"] ;
272 -> 273 ;
274 [label="gini = 0.0\nsamples = 1\nvalue = [0, 0, 0, 0, 1]"] ;
273 -> 274 ;
275 [label="gini = 0.0\nsamples = 1\nvalue = [1, 0, 0, 0, 0]"] ;
273 -> 275 ;
276 [label="gini = 0.0\nsamples = 8\nvalue = [0, 0, 8, 0, 0]"] ;
272 -> 276 ;
277 [label="yrs_smoke <= 20.0\ngini = 0.5\nsamples = 2\nvalue = [1, 1, 0, 0, 0]"] ;
271 -> 277 ;
278 [label="gini = 0.0\nsamples = 1\nvalue = [0, 1, 0, 0, 0]"] ;
277 -> 278 ;
279 [label="gini = 0.0\nsamples = 1\nvalue = [1, 0, 0, 0, 0]"] ;
277 -> 279 ;
280 [label="gini = 0.0\nsamples = 2\nvalue = [0, 0, 0, 2, 0]"] ;
270 -> 280 ;
281 [label="ex_bp2 <= 81.0\ngini = 0.7672\nsamples = 49\nvalue = [3, 9, 10, 12, 15]"] ;
269 -> 281 ;
282 [label="chol <= 219.0\ngini = 0.7143\nsamples = 14\nvalue = [1, 3, 3, 6, 1]"] ;
281 -> 282 ;
283 [label="hist_cad <= 0.5\ngini = 0.64\nsamples = 5\nvalue = [0, 2, 2, 0, 1]"] ;
282 -> 283 ;
284 [label="slope <= -3.5\ngini = 0.4444\nsamples = 3\nvalue = [0, 2, 0, 0, 1]"] ;
283 -> 284 ;
285 [label="gini = 0.0\nsamples = 1\nvalue = [0, 0, 0, 0, 1]"] ;
284 -> 285 ;
286 [label="gini = 0.0\nsamples = 2\nvalue = [0, 2, 0, 0, 0]"] ;
284 -> 286 ;
287 [label="gini = 0.0\nsamples = 2\nvalue = [0, 0, 2, 0, 0]"] ;
283 -> 287 ;
288 [label="max_hr <= 136.5\ngini = 0.5185\nsamples = 9\nvalue = [1, 1, 1, 6, 0]"] ;
282 -> 288 ;
289 [label="rest_hr <= 83.5\ngini = 0.2449\nsamples = 7\nvalue = [1, 0, 0, 6, 0]"] ;
288 -> 289 ;
290 [label="gini = 0.0\nsamples = 6\nvalue = [0, 0, 0, 6, 0]"] ;
289 -> 290 ;
291 [label="gini = 0.0\nsamples = 1\nvalue = [1, 0, 0, 0, 0]"] ;
289 -> 291 ;
292 [label="rest_hr <= 71.0\ngini = 0.5\nsamples = 2\nvalue = [0, 1, 1, 0, 0]"] ;
288 -> 292 ;
293 [label="gini = 0.0\nsamples = 1\nvalue = [0, 0, 1, 0, 0]"] ;
292 -> 293 ;
294 [label="gini = 0.0\nsamples = 1\nvalue = [0, 1, 0, 0, 0]"] ;
292 -> 294 ;
295 [label="ex_bp2 <= 92.0\ngini = 0.738\nsamples = 35\nvalue = [2, 6, 7, 6, 14]"] ;
281 -> 295 ;
296 [label="chol <= 263.0\ngini = 0.6094\nsamples = 19\nvalue = [1, 3, 3, 1, 11]"] ;
295 -> 296 ;
297 [label="max_hr <= 110.0\ngini = 0.76\nsamples = 10\nvalue = [1, 3, 2, 1, 3]"] ;
296 -> 297 ;
298 [label="gini = 0.0\nsamples = 3\nvalue = [0, 0, 0, 0, 3]"] ;
297 -> 298 ;
299 [label="chol <= 191.5\ngini = 0.6939\nsamples = 7\nvalue = [1, 3, 2, 1, 0]"] ;
297 -> 299 ;
300 [label="exang <= 0.5\ngini = 0.5\nsamples = 2\nvalue = [1, 0, 0, 1, 0]"] ;
299 -> 300 ;
301 [label="gini = 0.0\nsamples = 1\nvalue = [1, 0, 0, 0, 0]"] ;
300 -> 301 ;
302 [label="gini = 0.0\nsamples = 1\nvalue = [0, 0, 0, 1, 0]"] ;
300 -> 302 ;
303 [label="rest_hr <= 75.0\ngini = 0.48\nsamples = 5\nvalue = [0, 3, 2, 0, 0]"] ;
299 -> 303 ;
304 [label="ex_bp1 <= 168.0\ngini = 0.4444\nsamples = 3\nvalue = [0, 1, 2, 0, 0]"] ;
303 -> 304 ;
305 [label="gini = 0.0\nsamples = 2\nvalue = [0, 0, 2, 0, 0]"] ;
304 -> 305 ;
306 [label="gini = 0.0\nsamples = 1\nvalue = [0, 1, 0, 0, 0]"] ;
304 -> 306 ;
307 [label="gini = 0.0\nsamples = 2\nvalue = [0, 2, 0, 0, 0]"] ;
303 -> 307 ;
308 [label="ex_bp1 <= 215.0\ngini = 0.1975\nsamples = 9\nvalue = [0, 0, 1, 0, 8]"] ;
296 -> 308 ;
309 [label="gini = 0.0\nsamples = 7\nvalue = [0, 0, 0, 0, 7]"] ;
308 -> 309 ;
310 [label="fbs <= 0.5\ngini = 0.5\nsamples = 2\nvalue = [0, 0, 1, 0, 1]"] ;
308 -> 310 ;
311 [label="gini = 0.0\nsamples = 1\nvalue = [0, 0, 0, 0, 1]"] ;
310 -> 311 ;
312 [label="gini = 0.0\nsamples = 1\nvalue = [0, 0, 1, 0, 0]"] ;
310 -> 312 ;
313 [label="rest_bp <= 147.5\ngini = 0.7656\nsamples = 16\nvalue = [1, 3, 4, 5, 3]"] ;
295 -> 313 ;
314 [label="rest_hr <= 66.5\ngini = 0.68\nsamples = 10\nvalue = [1, 2, 1, 5, 1]"] ;
313 -> 314 ;
315 [label="rest_ecg <= 0.5\ngini = 0.6667\nsamples = 3\nvalue = [1, 1, 0, 0, 1]"] ;
314 -> 315 ;
316 [label="gini = 0.0\nsamples = 1\nvalue = [1, 0, 0, 0, 0]"] ;
315 -> 316 ;
317 [label="ex_bp2 <= 102.5\ngini = 0.5\nsamples = 2\nvalue = [0, 1, 0, 0, 1]"] ;
315 -> 317 ;
318 [label="gini = 0.0\nsamples = 1\nvalue = [0, 1, 0, 0, 0]"] ;
317 -> 318 ;
319 [label="gini = 0.0\nsamples = 1\nvalue = [0, 0, 0, 0, 1]"] ;
317 -> 319 ;
320 [label="thal <= -1.0\ngini = 0.449\nsamples = 7\nvalue = [0, 1, 1, 5, 0]"] ;
314 -> 320 ;
321 [label="rest_bp <= 127.5\ngini = 0.2778\nsamples = 6\nvalue = [0, 1, 0, 5, 0]"] ;
320 -> 321 ;
322 [label="gini = 0.0\nsamples = 1\nvalue = [0, 1, 0, 0, 0]"] ;
321 -> 322 ;
323 [label="gini = 0.0\nsamples = 5\nvalue = [0, 0, 0, 5, 0]"] ;
321 -> 323 ;
324 [label="gini = 0.0\nsamples = 1\nvalue = [0, 0, 1, 0, 0]"] ;
320 -> 324 ;
325 [label="age <= 48.5\ngini = 0.6111\nsamples = 6\nvalue = [0, 1, 3, 0, 2]"] ;
313 -> 325 ;
326 [label="ex_bp2 <= 107.5\ngini = 0.375\nsamples = 4\nvalue = [0, 1, 3, 0, 0]"] ;
325 -> 326 ;
327 [label="gini = 0.0\nsamples = 3\nvalue = [0, 0, 3, 0, 0]"] ;
326 -> 327 ;
328 [label="gini = 0.0\nsamples = 1\nvalue = [0, 1, 0, 0, 0]"] ;
326 -> 328 ;
329 [label="gini = 0.0\nsamples = 2\nvalue = [0, 0, 0, 0, 2]"] ;
325 -> 329 ;
330 [label="slope <= 2.5\ngini = 0.2778\nsamples = 6\nvalue = [1, 0, 0, 5, 0]"] ;
268 -> 330 ;
331 [label="gini = 0.0\nsamples = 5\nvalue = [0, 0, 0, 5, 0]"] ;
330 -> 331 ;
332 [label="gini = 0.0\nsamples = 1\nvalue = [1, 0, 0, 0, 0]"] ;
330 -> 332 ;
}