digraph Tree {
node [shape=box] ;
0 [label="cp_type_4.0 <= 0.5\ngini = 0.5\nsamples = 493\nvalue = [246.5, 246.5]"] ;
1 [label="age <= 56.5\ngini = 0.3536\nsamples = 209\nvalue = [177.625, 52.8824]"] ;
0 -> 1 [labeldistance=2.5, labelangle=45, headlabel="True"] ;
2 [label="slope_2.0 <= 0.5\ngini = 0.2287\nsamples = 147\nvalue = [146.2083, 22.1765]"] ;
1 -> 2 ;
3 [label="gini = 0.1389\nsamples = 126\nvalue = [136.5417, 11.0882]"] ;
2 -> 3 ;
4 [label="gini = 0.4977\nsamples = 21\nvalue = [9.6667, 11.0882]"] ;
2 -> 4 ;
5 [label="max_hr <= 96.5\ngini = 0.4999\nsamples = 62\nvalue = [31.4167, 30.7059]"] ;
1 -> 5 ;
6 [label="gini = 0.0\nsamples = 6\nvalue = [0.0, 5.1176]"] ;
5 -> 6 ;
7 [label="gini = 0.4948\nsamples = 56\nvalue = [31.4167, 25.5882]"] ;
5 -> 7 ;
8 [label="slope_0.0 <= 0.5\ngini = 0.3871\nsamples = 284\nvalue = [68.875, 193.6176]"] ;
0 -> 8 [labeldistance=2.5, labelangle=-45, headlabel="False"] ;
9 [label="sex_0.0 <= 0.5\ngini = 0.248\nsamples = 187\nvalue = [24.1667, 142.4412]"] ;
8 -> 9 ;
10 [label="gini = 0.1898\nsamples = 168\nvalue = [15.7083, 132.2059]"] ;
9 -> 10 ;
11 [label="gini = 0.4955\nsamples = 19\nvalue = [8.4583, 10.2353]"] ;
9 -> 11 ;
12 [label="rest_hr <= 75.8369\ngini = 0.4977\nsamples = 97\nvalue = [44.7083, 51.1765]"] ;
8 -> 12 ;
13 [label="gini = 0.4102\nsamples = 63\nvalue = [16.9167, 41.7941]"] ;
12 -> 13 ;
14 [label="gini = 0.3774\nsamples = 34\nvalue = [27.7917, 9.3824]"] ;
12 -> 14 ;
}